<?xml version="1.0"?>
<opencv_storage>
<cascade>
  <stageType>BOOST</stageType>
  <featureType>HAAR</featureType>
  <height>50</height>
  <width>50</width>
  <stageParams>
    <boostType>GAB</boostType>
    <minHitRate>9.9500000476837158e-01</minHitRate>
    <maxFalseAlarm>5.0000000000000000e-01</maxFalseAlarm>
    <weightTrimRate>9.4999999999999996e-01</weightTrimRate>
    <maxDepth>1</maxDepth>
    <maxWeakCount>100</maxWeakCount></stageParams>
  <featureParams>
    <maxCatCount>0</maxCatCount>
    <featSize>1</featSize>
    <mode>BASIC</mode></featureParams>
  <stageNum>11</stageNum>
  <stages>
    <!-- stage 0 -->
    <_>
      <maxWeakCount>3</maxWeakCount>
      <stageThreshold>-9.1902023553848267e-01</stageThreshold>
      <weakClassifiers>
        <_>
          <internalNodes>
            0 -1 9 5.3331796079874039e-02</internalNodes>
          <leafValues>
            -9.0041494369506836e-01 9.1748523712158203e-01</leafValues></_>
        <_>
          <internalNodes>
            0 -1 14 4.5627936720848083e-02</internalNodes>
          <leafValues>
            -8.5387808084487915e-01 8.5709708929061890e-01</leafValues></_>
        <_>
          <internalNodes>
            0 -1 20 1.2398911640048027e-02</internalNodes>
          <leafValues>
            -7.7915495634078979e-01 8.3527278900146484e-01</leafValues></_></weakClassifiers></_>
    <!-- stage 1 -->
    <_>
      <maxWeakCount>3</maxWeakCount>
      <stageThreshold>-8.3655548095703125e-01</stageThreshold>
      <weakClassifiers>
        <_>
          <internalNodes>
            0 -1 10 5.2678983658552170e-02</internalNodes>
          <leafValues>
            -8.7557601928710938e-01 8.2551592588424683e-01</leafValues></_>
        <_>
          <internalNodes>
            0 -1 23 5.7953861542046070e-03</internalNodes>
          <leafValues>
            -8.3069300651550293e-01 7.3731499910354614e-01</leafValues></_>
        <_>
          <internalNodes>
            0 -1 2 7.5331302359700203e-03</internalNodes>
          <leafValues>
            -6.0354793071746826e-01 8.6971354484558105e-01</leafValues></_></weakClassifiers></_>
    <!-- stage 2 -->
    <_>
      <maxWeakCount>4</maxWeakCount>
      <stageThreshold>-5.8784115314483643e-01</stageThreshold>
      <weakClassifiers>
        <_>
          <internalNodes>
            0 -1 11 3.6410644650459290e-02</internalNodes>
          <leafValues>
            -9.1054314374923706e-01 7.7226608991622925e-01</leafValues></_>
        <_>
          <internalNodes>
            0 -1 29 4.0693236514925957e-03</internalNodes>
          <leafValues>
            -9.2639905214309692e-01 6.5671813488006592e-01</leafValues></_>
        <_>
          <internalNodes>
            0 -1 5 -7.0394705981016159e-03</internalNodes>
          <leafValues>
            5.4647517204284668e-01 -8.8883471488952637e-01</leafValues></_>
        <_>
          <internalNodes>
            0 -1 4 1.4633095264434814e-01</internalNodes>
          <leafValues>
            -7.9431319236755371e-01 5.5481857061386108e-01</leafValues></_></weakClassifiers></_>
    <!-- stage 3 -->
    <_>
      <maxWeakCount>4</maxWeakCount>
      <stageThreshold>-1.3358870148658752e-01</stageThreshold>
      <weakClassifiers>
        <_>
          <internalNodes>
            0 -1 17 -1.4470953494310379e-02</internalNodes>
          <leafValues>
            8.3749997615814209e-01 -6.7500001192092896e-01</leafValues></_>
        <_>
          <internalNodes>
            0 -1 7 1.3841071724891663e-01</internalNodes>
          <leafValues>
            -5.3112971782684326e-01 8.0628222227096558e-01</leafValues></_>
        <_>
          <internalNodes>
            0 -1 28 2.1083686078782193e-05</internalNodes>
          <leafValues>
            5.2843111753463745e-01 -9.6213746070861816e-01</leafValues></_>
        <_>
          <internalNodes>
            0 -1 22 1.3459332287311554e-02</internalNodes>
          <leafValues>
            -7.9330199956893921e-01 5.6617397069931030e-01</leafValues></_></weakClassifiers></_>
    <!-- stage 4 -->
    <_>
      <maxWeakCount>3</maxWeakCount>
      <stageThreshold>1.3206727802753448e-01</stageThreshold>
      <weakClassifiers>
        <_>
          <internalNodes>
            0 -1 28 -2.6597259420668706e-05</internalNodes>
          <leafValues>
            -8.6885243654251099e-01 7.4301677942276001e-01</leafValues></_>
        <_>
          <internalNodes>
            0 -1 0 9.5697324723005295e-03</internalNodes>
          <leafValues>
            -8.6099576950073242e-01 5.9947115182876587e-01</leafValues></_>
        <_>
          <internalNodes>
            0 -1 25 -2.4705208488740027e-04</internalNodes>
          <leafValues>
            -1. 4.0144860744476318e-01</leafValues></_></weakClassifiers></_>
    <!-- stage 5 -->
    <_>
      <maxWeakCount>2</maxWeakCount>
      <stageThreshold>-9.1017171740531921e-02</stageThreshold>
      <weakClassifiers>
        <_>
          <internalNodes>
            0 -1 27 2.1709849534090608e-05</internalNodes>
          <leafValues>
            7.5900900363922119e-01 -8.7820512056350708e-01</leafValues></_>
        <_>
          <internalNodes>
            0 -1 30 -4.2993342503905296e-03</internalNodes>
          <leafValues>
            7.8718793392181396e-01 -5.9895586967468262e-01</leafValues></_></weakClassifiers></_>
    <!-- stage 6 -->
    <_>
      <maxWeakCount>3</maxWeakCount>
      <stageThreshold>-1.0754324197769165e+00</stageThreshold>
      <weakClassifiers>
        <_>
          <internalNodes>
            0 -1 18 -2.6202749460935593e-02</internalNodes>
          <leafValues>
            6.8264108896255493e-01 -9.2337167263031006e-01</leafValues></_>
        <_>
          <internalNodes>
            0 -1 13 7.8475877642631531e-02</internalNodes>
          <leafValues>
            -7.8303104639053345e-01 5.7725691795349121e-01</leafValues></_>
        <_>
          <internalNodes>
            0 -1 15 1.2397097423672676e-02</internalNodes>
          <leafValues>
            -7.8080612421035767e-01 6.3097029924392700e-01</leafValues></_></weakClassifiers></_>
    <!-- stage 7 -->
    <_>
      <maxWeakCount>4</maxWeakCount>
      <stageThreshold>-4.7675019502639771e-01</stageThreshold>
      <weakClassifiers>
        <_>
          <internalNodes>
            0 -1 8 8.0066218972206116e-02</internalNodes>
          <leafValues>
            -8.5667753219604492e-01 7.4244123697280884e-01</leafValues></_>
        <_>
          <internalNodes>
            0 -1 24 4.8031186452135444e-05</internalNodes>
          <leafValues>
            5.8419519662857056e-01 -8.7165337800979614e-01</leafValues></_>
        <_>
          <internalNodes>
            0 -1 1 4.8234499990940094e-03</internalNodes>
          <leafValues>
            -6.3504397869110107e-01 6.5231436491012573e-01</leafValues></_>
        <_>
          <internalNodes>
            0 -1 26 7.3591861873865128e-03</internalNodes>
          <leafValues>
            -9.4219028949737549e-01 4.3077611923217773e-01</leafValues></_></weakClassifiers></_>
    <!-- stage 8 -->
    <_>
      <maxWeakCount>3</maxWeakCount>
      <stageThreshold>1.5150797367095947e-01</stageThreshold>
      <weakClassifiers>
        <_>
          <internalNodes>
            0 -1 27 -2.7395257347961888e-05</internalNodes>
          <leafValues>
            -9.6282529830932617e-01 7.0784103870391846e-01</leafValues></_>
        <_>
          <internalNodes>
            0 -1 3 1.4949148893356323e-01</internalNodes>
          <leafValues>
            -7.3927938938140869e-01 6.5691393613815308e-01</leafValues></_>
        <_>
          <internalNodes>
            0 -1 16 -1.1523783905431628e-04</internalNodes>
          <leafValues>
            -9.9444454908370972e-01 4.5741930603981018e-01</leafValues></_></weakClassifiers></_>
    <!-- stage 9 -->
    <_>
      <maxWeakCount>1</maxWeakCount>
      <stageThreshold>7.2727274894714355e-01</stageThreshold>
      <weakClassifiers>
        <_>
          <internalNodes>
            0 -1 21 4.3240041122771800e-05</internalNodes>
          <leafValues>
            7.2727274894714355e-01 -9.8550724983215332e-01</leafValues></_></weakClassifiers></_>
    <!-- stage 10 -->
    <_>
      <maxWeakCount>3</maxWeakCount>
      <stageThreshold>-8.5291153192520142e-01</stageThreshold>
      <weakClassifiers>
        <_>
          <internalNodes>
            0 -1 12 4.1213311254978180e-02</internalNodes>
          <leafValues>
            -9.1176468133926392e-01 6.9827586412429810e-01</leafValues></_>
        <_>
          <internalNodes>
            0 -1 6 1.9002707675099373e-02</internalNodes>
          <leafValues>
            -6.3209766149520874e-01 7.0017367601394653e-01</leafValues></_>
        <_>
          <internalNodes>
            0 -1 19 2.8917572763020871e-06</internalNodes>
          <leafValues>
            -9.1908973455429077e-01 4.8334050178527832e-01</leafValues></_></weakClassifiers></_></stages>
  <features>
    <_>
      <rects>
        <_>
          0 11 27 9 -1.</_>
        <_>
          9 11 9 9 3.</_></rects>
      <tilted>0</tilted></_>
    <_>
      <rects>
        <_>
          0 16 4 27 -1.</_>
        <_>
          2 16 2 27 2.</_></rects>
      <tilted>0</tilted></_>
    <_>
      <rects>
        <_>
          0 17 6 22 -1.</_>
        <_>
          3 17 3 22 2.</_></rects>
      <tilted>0</tilted></_>
    <_>
      <rects>
        <_>
          2 0 43 27 -1.</_>
        <_>
          2 9 43 9 3.</_></rects>
      <tilted>0</tilted></_>
    <_>
      <rects>
        <_>
          2 6 48 35 -1.</_>
        <_>
          18 6 16 35 3.</_></rects>
      <tilted>0</tilted></_>
    <_>
      <rects>
        <_>
          3 8 22 14 -1.</_>
        <_>
          3 8 11 7 2.</_>
        <_>
          14 15 11 7 2.</_></rects>
      <tilted>0</tilted></_>
    <_>
      <rects>
        <_>
          8 17 22 10 -1.</_>
        <_>
          8 17 11 5 2.</_>
        <_>
          19 22 11 5 2.</_></rects>
      <tilted>0</tilted></_>
    <_>
      <rects>
        <_>
          10 0 30 24 -1.</_>
        <_>
          10 8 30 8 3.</_></rects>
      <tilted>0</tilted></_>
    <_>
      <rects>
        <_>
          10 21 30 25 -1.</_>
        <_>
          20 21 10 25 3.</_></rects>
      <tilted>0</tilted></_>
    <_>
      <rects>
        <_>
          11 1 27 21 -1.</_>
        <_>
          11 8 27 7 3.</_></rects>
      <tilted>0</tilted></_>
    <_>
      <rects>
        <_>
          11 26 30 24 -1.</_>
        <_>
          11 34 30 8 3.</_></rects>
      <tilted>0</tilted></_>
    <_>
      <rects>
        <_>
          12 4 31 18 -1.</_>
        <_>
          12 10 31 6 3.</_></rects>
      <tilted>0</tilted></_>
    <_>
      <rects>
        <_>
          12 7 27 31 -1.</_>
        <_>
          21 7 9 31 3.</_></rects>
      <tilted>0</tilted></_>
    <_>
      <rects>
        <_>
          12 21 27 23 -1.</_>
        <_>
          21 21 9 23 3.</_></rects>
      <tilted>0</tilted></_>
    <_>
      <rects>
        <_>
          12 22 27 19 -1.</_>
        <_>
          21 22 9 19 3.</_></rects>
      <tilted>0</tilted></_>
    <_>
      <rects>
        <_>
          13 0 23 8 -1.</_>
        <_>
          13 4 23 4 2.</_></rects>
      <tilted>0</tilted></_>
    <_>
      <rects>
        <_>
          13 11 18 2 -1.</_>
        <_>
          22 11 9 2 2.</_></rects>
      <tilted>0</tilted></_>
    <_>
      <rects>
        <_>
          13 42 22 8 -1.</_>
        <_>
          13 46 22 4 2.</_></rects>
      <tilted>0</tilted></_>
    <_>
      <rects>
        <_>
          14 6 21 22 -1.</_>
        <_>
          14 17 21 11 2.</_></rects>
      <tilted>0</tilted></_>
    <_>
      <rects>
        <_>
          14 12 36 1 -1.</_>
        <_>
          26 12 12 1 3.</_></rects>
      <tilted>0</tilted></_>
    <_>
      <rects>
        <_>
          14 14 14 14 -1.</_>
        <_>
          14 14 7 7 2.</_>
        <_>
          21 21 7 7 2.</_></rects>
      <tilted>0</tilted></_>
    <_>
      <rects>
        <_>
          15 12 16 1 -1.</_>
        <_>
          23 12 8 1 2.</_></rects>
      <tilted>0</tilted></_>
    <_>
      <rects>
        <_>
          15 21 12 9 -1.</_>
        <_>
          21 21 6 9 2.</_></rects>
      <tilted>0</tilted></_>
    <_>
      <rects>
        <_>
          17 21 15 5 -1.</_>
        <_>
          22 21 5 5 3.</_></rects>
      <tilted>0</tilted></_>
    <_>
      <rects>
        <_>
          18 39 15 1 -1.</_>
        <_>
          23 39 5 1 3.</_></rects>
      <tilted>0</tilted></_>
    <_>
      <rects>
        <_>
          21 31 7 10 -1.</_>
        <_>
          21 36 7 5 2.</_></rects>
      <tilted>0</tilted></_>
    <_>
      <rects>
        <_>
          24 12 4 36 -1.</_>
        <_>
          24 24 4 12 3.</_></rects>
      <tilted>0</tilted></_>
    <_>
      <rects>
        <_>
          24 31 1 10 -1.</_>
        <_>
          24 36 1 5 2.</_></rects>
      <tilted>0</tilted></_>
    <_>
      <rects>
        <_>
          24 38 6 2 -1.</_>
        <_>
          26 38 2 2 3.</_></rects>
      <tilted>0</tilted></_>
    <_>
      <rects>
        <_>
          25 14 3 20 -1.</_>
        <_>
          25 24 3 10 2.</_></rects>
      <tilted>0</tilted></_>
    <_>
      <rects>
        <_>
          46 13 4 26 -1.</_>
        <_>
          48 13 2 26 2.</_></rects>
      <tilted>0</tilted></_></features></cascade>
</opencv_storage>
