<?xml version="1.0"?>
<opencv_storage>
<cascade>
  <stageType>BOOST</stageType>
  <featureType>HAAR</featureType>
  <height>50</height>
  <width>50</width>
  <stageParams>
    <boostType>GAB</boostType>
    <minHitRate>9.9500000476837158e-01</minHitRate>
    <maxFalseAlarm>5.0000000000000000e-01</maxFalseAlarm>
    <weightTrimRate>9.4999999999999996e-01</weightTrimRate>
    <maxDepth>1</maxDepth>
    <maxWeakCount>100</maxWeakCount></stageParams>
  <featureParams>
    <maxCatCount>0</maxCatCount>
    <featSize>1</featSize>
    <mode>BASIC</mode></featureParams>
  <stageNum>10</stageNum>
  <stages>
    <!-- stage 0 -->
    <_>
      <maxWeakCount>2</maxWeakCount>
      <stageThreshold>-5.2457127720117569e-02</stageThreshold>
      <weakClassifiers>
        <_>
          <internalNodes>
            0 -1 10 8.3098292350769043e-02</internalNodes>
          <leafValues>
            -8.9812332391738892e-01 8.8875454664230347e-01</leafValues></_>
        <_>
          <internalNodes>
            0 -1 15 2.8672717511653900e-02</internalNodes>
          <leafValues>
            -9.4121164083480835e-01 8.6719137430191040e-01</leafValues></_></weakClassifiers></_>
    <!-- stage 1 -->
    <_>
      <maxWeakCount>2</maxWeakCount>
      <stageThreshold>1.4962406828999519e-02</stageThreshold>
      <weakClassifiers>
        <_>
          <internalNodes>
            0 -1 5 -8.4322048351168633e-03</internalNodes>
          <leafValues>
            8.7834548950195312e-01 -8.5185188055038452e-01</leafValues></_>
        <_>
          <internalNodes>
            0 -1 26 5.1948134787380695e-03</internalNodes>
          <leafValues>
            -8.6338311433792114e-01 8.6822748184204102e-01</leafValues></_></weakClassifiers></_>
    <!-- stage 2 -->
    <_>
      <maxWeakCount>4</maxWeakCount>
      <stageThreshold>-2.2507379949092865e-01</stageThreshold>
      <weakClassifiers>
        <_>
          <internalNodes>
            0 -1 11 5.2142128348350525e-02</internalNodes>
          <leafValues>
            -8.4523808956146240e-01 7.9166668653488159e-01</leafValues></_>
        <_>
          <internalNodes>
            0 -1 9 2.4528598412871361e-02</internalNodes>
          <leafValues>
            -7.4186033010482788e-01 8.0557948350906372e-01</leafValues></_>
        <_>
          <internalNodes>
            0 -1 7 -1.6133908182382584e-02</internalNodes>
          <leafValues>
            6.9617921113967896e-01 -7.8325629234313965e-01</leafValues></_>
        <_>
          <internalNodes>
            0 -1 17 4.9871578812599182e-02</internalNodes>
          <leafValues>
            -7.4059152603149414e-01 6.6584539413452148e-01</leafValues></_></weakClassifiers></_>
    <!-- stage 3 -->
    <_>
      <maxWeakCount>4</maxWeakCount>
      <stageThreshold>-1.1994831264019012e-01</stageThreshold>
      <weakClassifiers>
        <_>
          <internalNodes>
            0 -1 2 1.6421015560626984e-01</internalNodes>
          <leafValues>
            -6.5903306007385254e-01 8.1660473346710205e-01</leafValues></_>
        <_>
          <internalNodes>
            0 -1 28 7.8256465494632721e-03</internalNodes>
          <leafValues>
            -6.5044397115707397e-01 7.2697138786315918e-01</leafValues></_>
        <_>
          <internalNodes>
            0 -1 4 -2.3658568039536476e-02</internalNodes>
          <leafValues>
            7.2032523155212402e-01 -6.2561571598052979e-01</leafValues></_>
        <_>
          <internalNodes>
            0 -1 22 -3.1037787266541272e-05</internalNodes>
          <leafValues>
            -9.2910581827163696e-01 4.6920350193977356e-01</leafValues></_></weakClassifiers></_>
    <!-- stage 4 -->
    <_>
      <maxWeakCount>2</maxWeakCount>
      <stageThreshold>-1.7303653061389923e-01</stageThreshold>
      <weakClassifiers>
        <_>
          <internalNodes>
            0 -1 22 2.8280463084229268e-05</internalNodes>
          <leafValues>
            7.3580783605575562e-01 -9.6478873491287231e-01</leafValues></_>
        <_>
          <internalNodes>
            0 -1 30 2.4580527096986771e-03</internalNodes>
          <leafValues>
            -6.1449491977691650e-01 7.9175221920013428e-01</leafValues></_></weakClassifiers></_>
    <!-- stage 5 -->
    <_>
      <maxWeakCount>4</maxWeakCount>
      <stageThreshold>-3.1395456194877625e-01</stageThreshold>
      <weakClassifiers>
        <_>
          <internalNodes>
            0 -1 12 -8.1807710230350494e-03</internalNodes>
          <leafValues>
            8.1841766834259033e-01 -5.3846156597137451e-01</leafValues></_>
        <_>
          <internalNodes>
            0 -1 18 2.5351941585540771e-02</internalNodes>
          <leafValues>
            -6.4432889223098755e-01 6.9576340913772583e-01</leafValues></_>
        <_>
          <internalNodes>
            0 -1 24 3.9720889617456123e-05</internalNodes>
          <leafValues>
            4.3230071663856506e-01 -9.9005550146102905e-01</leafValues></_>
        <_>
          <internalNodes>
            0 -1 24 -1.2711961062450428e-05</internalNodes>
          <leafValues>
            -9.7608101367950439e-01 4.3653514981269836e-01</leafValues></_></weakClassifiers></_>
    <!-- stage 6 -->
    <_>
      <maxWeakCount>4</maxWeakCount>
      <stageThreshold>-3.5529354214668274e-01</stageThreshold>
      <weakClassifiers>
        <_>
          <internalNodes>
            0 -1 29 -8.5718324407935143e-04</internalNodes>
          <leafValues>
            7.0953434705734253e-01 -8.0536913871765137e-01</leafValues></_>
        <_>
          <internalNodes>
            0 -1 1 1.6008864622563124e-03</internalNodes>
          <leafValues>
            -5.9340208768844604e-01 7.0242291688919067e-01</leafValues></_>
        <_>
          <internalNodes>
            0 -1 27 -1.7539091408252716e-02</internalNodes>
          <leafValues>
            6.9302999973297119e-01 -6.9604003429412842e-01</leafValues></_>
        <_>
          <internalNodes>
            0 -1 8 -3.7549412809312344e-05</internalNodes>
          <leafValues>
            -8.8216954469680786e-01 4.4369268417358398e-01</leafValues></_></weakClassifiers></_>
    <!-- stage 7 -->
    <_>
      <maxWeakCount>4</maxWeakCount>
      <stageThreshold>-2.9884502291679382e-01</stageThreshold>
      <weakClassifiers>
        <_>
          <internalNodes>
            0 -1 23 1.3638169039040804e-03</internalNodes>
          <leafValues>
            -6.4542937278747559e-01 7.5446963310241699e-01</leafValues></_>
        <_>
          <internalNodes>
            0 -1 16 6.7118145525455475e-02</internalNodes>
          <leafValues>
            -7.6088047027587891e-01 5.8266580104827881e-01</leafValues></_>
        <_>
          <internalNodes>
            0 -1 13 1.1828312650322914e-02</internalNodes>
          <leafValues>
            -6.0509508848190308e-01 6.8746513128280640e-01</leafValues></_>
        <_>
          <internalNodes>
            0 -1 21 -1.4570157873095013e-05</internalNodes>
          <leafValues>
            -9.7675436735153198e-01 4.1999968886375427e-01</leafValues></_></weakClassifiers></_>
    <!-- stage 8 -->
    <_>
      <maxWeakCount>3</maxWeakCount>
      <stageThreshold>-8.7190073728561401e-01</stageThreshold>
      <weakClassifiers>
        <_>
          <internalNodes>
            0 -1 21 7.3442306529614143e-06</internalNodes>
          <leafValues>
            6.8995630741119385e-01 -8.1690138578414917e-01</leafValues></_>
        <_>
          <internalNodes>
            0 -1 14 7.8630760312080383e-02</internalNodes>
          <leafValues>
            -7.2100675106048584e-01 6.2336277961730957e-01</leafValues></_>
        <_>
          <internalNodes>
            0 -1 3 -2.2341910749673843e-02</internalNodes>
          <leafValues>
            5.3819584846496582e-01 -8.4085029363632202e-01</leafValues></_></weakClassifiers></_>
    <!-- stage 9 -->
    <_>
      <maxWeakCount>5</maxWeakCount>
      <stageThreshold>-1.0883803367614746e+00</stageThreshold>
      <weakClassifiers>
        <_>
          <internalNodes>
            0 -1 19 3.4576694015413523e-03</internalNodes>
          <leafValues>
            -6.9444441795349121e-01 6.5789473056793213e-01</leafValues></_>
        <_>
          <internalNodes>
            0 -1 6 -1.3428919017314911e-02</internalNodes>
          <leafValues>
            5.1192224025726318e-01 -7.6071113348007202e-01</leafValues></_>
        <_>
          <internalNodes>
            0 -1 25 1.0328568518161774e-02</internalNodes>
          <leafValues>
            -6.3634121417999268e-01 6.8379497528076172e-01</leafValues></_>
        <_>
          <internalNodes>
            0 -1 20 7.1339281930704601e-06</internalNodes>
          <leafValues>
            4.2971488833427429e-01 -8.6011916399002075e-01</leafValues></_>
        <_>
          <internalNodes>
            0 -1 0 -2.8657568618655205e-02</internalNodes>
          <leafValues>
            3.9871206879615784e-01 -8.0923980474472046e-01</leafValues></_></weakClassifiers></_></stages>
  <features>
    <_>
      <rects>
        <_>
          1 0 24 24 -1.</_>
        <_>
          1 0 12 12 2.</_>
        <_>
          13 12 12 12 2.</_></rects>
      <tilted>0</tilted></_>
    <_>
      <rects>
        <_>
          1 23 6 4 -1.</_>
        <_>
          4 23 3 4 2.</_></rects>
      <tilted>0</tilted></_>
    <_>
      <rects>
        <_>
          1 25 48 21 -1.</_>
        <_>
          17 25 16 21 3.</_></rects>
      <tilted>0</tilted></_>
    <_>
      <rects>
        <_>
          3 2 16 22 -1.</_>
        <_>
          3 2 8 11 2.</_>
        <_>
          11 13 8 11 2.</_></rects>
      <tilted>0</tilted></_>
    <_>
      <rects>
        <_>
          4 6 12 20 -1.</_>
        <_>
          4 6 6 10 2.</_>
        <_>
          10 16 6 10 2.</_></rects>
      <tilted>0</tilted></_>
    <_>
      <rects>
        <_>
          5 18 12 8 -1.</_>
        <_>
          11 18 6 8 2.</_></rects>
      <tilted>0</tilted></_>
    <_>
      <rects>
        <_>
          6 18 15 9 -1.</_>
        <_>
          11 18 5 9 3.</_></rects>
      <tilted>0</tilted></_>
    <_>
      <rects>
        <_>
          8 13 15 16 -1.</_>
        <_>
          13 13 5 16 3.</_></rects>
      <tilted>0</tilted></_>
    <_>
      <rects>
        <_>
          10 9 12 2 -1.</_>
        <_>
          14 9 4 2 3.</_></rects>
      <tilted>0</tilted></_>
    <_>
      <rects>
        <_>
          10 12 16 18 -1.</_>
        <_>
          10 12 8 9 2.</_>
        <_>
          18 21 8 9 2.</_></rects>
      <tilted>0</tilted></_>
    <_>
      <rects>
        <_>
          11 21 30 25 -1.</_>
        <_>
          21 21 10 25 3.</_></rects>
      <tilted>0</tilted></_>
    <_>
      <rects>
        <_>
          11 23 29 27 -1.</_>
        <_>
          11 32 29 9 3.</_></rects>
      <tilted>0</tilted></_>
    <_>
      <rects>
        <_>
          11 44 26 6 -1.</_>
        <_>
          11 47 26 3 2.</_></rects>
      <tilted>0</tilted></_>
    <_>
      <rects>
        <_>
          12 0 36 6 -1.</_>
        <_>
          12 3 36 3 2.</_></rects>
      <tilted>0</tilted></_>
    <_>
      <rects>
        <_>
          12 23 27 27 -1.</_>
        <_>
          12 32 27 9 3.</_></rects>
      <tilted>0</tilted></_>
    <_>
      <rects>
        <_>
          13 0 26 18 -1.</_>
        <_>
          13 6 26 6 3.</_></rects>
      <tilted>0</tilted></_>
    <_>
      <rects>
        <_>
          14 4 24 39 -1.</_>
        <_>
          22 4 8 39 3.</_></rects>
      <tilted>0</tilted></_>
    <_>
      <rects>
        <_>
          15 0 22 18 -1.</_>
        <_>
          15 6 22 6 3.</_></rects>
      <tilted>0</tilted></_>
    <_>
      <rects>
        <_>
          19 1 14 15 -1.</_>
        <_>
          19 6 14 5 3.</_></rects>
      <tilted>0</tilted></_>
    <_>
      <rects>
        <_>
          21 35 12 15 -1.</_>
        <_>
          21 40 12 5 3.</_></rects>
      <tilted>0</tilted></_>
    <_>
      <rects>
        <_>
          22 30 3 4 -1.</_>
        <_>
          22 32 3 2 2.</_></rects>
      <tilted>0</tilted></_>
    <_>
      <rects>
        <_>
          23 36 4 3 -1.</_>
        <_>
          25 36 2 3 2.</_></rects>
      <tilted>0</tilted></_>
    <_>
      <rects>
        <_>
          23 38 2 4 -1.</_>
        <_>
          23 40 2 2 2.</_></rects>
      <tilted>0</tilted></_>
    <_>
      <rects>
        <_>
          24 18 2 15 -1.</_>
        <_>
          24 23 2 5 3.</_></rects>
      <tilted>0</tilted></_>
    <_>
      <rects>
        <_>
          24 27 1 10 -1.</_>
        <_>
          24 32 1 5 2.</_></rects>
      <tilted>0</tilted></_>
    <_>
      <rects>
        <_>
          32 6 12 12 -1.</_>
        <_>
          32 6 6 6 2.</_>
        <_>
          38 12 6 6 2.</_></rects>
      <tilted>0</tilted></_>
    <_>
      <rects>
        <_>
          35 18 10 7 -1.</_>
        <_>
          40 18 5 7 2.</_></rects>
      <tilted>0</tilted></_>
    <_>
      <rects>
        <_>
          35 18 10 26 -1.</_>
        <_>
          35 18 5 13 2.</_>
        <_>
          40 31 5 13 2.</_></rects>
      <tilted>0</tilted></_>
    <_>
      <rects>
        <_>
          37 8 8 16 -1.</_>
        <_>
          37 8 4 8 2.</_>
        <_>
          41 16 4 8 2.</_></rects>
      <tilted>0</tilted></_>
    <_>
      <rects>
        <_>
          37 15 8 12 -1.</_>
        <_>
          37 21 8 6 2.</_></rects>
      <tilted>0</tilted></_>
    <_>
      <rects>
        <_>
          40 23 9 2 -1.</_>
        <_>
          43 23 3 2 3.</_></rects>
      <tilted>0</tilted></_></features></cascade>
</opencv_storage>
